FANN_FLO_2.1
num_layers=5
learning_rate=0.700000
connection_rate=1.000000
network_type=0
learning_momentum=0.000000
training_algorithm=2
train_error_function=1
train_stop_function=0
cascade_output_change_fraction=0.010000
quickprop_decay=-0.000100
quickprop_mu=1.750000
rprop_increase_factor=1.200000
rprop_decrease_factor=0.500000
rprop_delta_min=0.000000
rprop_delta_max=50.000000
rprop_delta_zero=0.100000
cascade_output_stagnation_epochs=12
cascade_candidate_change_fraction=0.010000
cascade_candidate_stagnation_epochs=12
cascade_max_out_epochs=150
cascade_min_out_epochs=50
cascade_max_cand_epochs=150
cascade_min_cand_epochs=50
cascade_num_candidate_groups=2
bit_fail_limit=3.49999999999999977796e-01
cascade_candidate_limit=1.00000000000000000000e+03
cascade_weight_multiplier=4.00000000000000022204e-01
cascade_activation_functions_count=10
cascade_activation_functions=3 5 7 8 10 11 14 15 16 17 
cascade_activation_steepnesses_count=4
cascade_activation_steepnesses=2.50000000000000000000e-01 5.00000000000000000000e-01 7.50000000000000000000e-01 1.00000000000000000000e+00 
layer_sizes=18 3 4 4 2 
scale_included=0
neurons (num_inputs, activation_function, activation_steepness)=(0, 0, 0.00000000000000000000e+00) (0, 0, 0.00000000000000000000e+00) (0, 0, 0.00000000000000000000e+00) (0, 0, 0.00000000000000000000e+00) (0, 0, 0.00000000000000000000e+00) (0, 0, 0.00000000000000000000e+00) (0, 0, 0.00000000000000000000e+00) (0, 0, 0.00000000000000000000e+00) (0, 0, 0.00000000000000000000e+00) (0, 0, 0.00000000000000000000e+00) (0, 0, 0.00000000000000000000e+00) (0, 0, 0.00000000000000000000e+00) (0, 0, 0.00000000000000000000e+00) (0, 0, 0.00000000000000000000e+00) (0, 0, 0.00000000000000000000e+00) (0, 0, 0.00000000000000000000e+00) (0, 0, 0.00000000000000000000e+00) (0, 0, 0.00000000000000000000e+00) (18, 4, 5.00000000000000000000e-01) (18, 4, 5.00000000000000000000e-01) (0, 0, 0.00000000000000000000e+00) (3, 4, 5.00000000000000000000e-01) (3, 4, 5.00000000000000000000e-01) (3, 4, 5.00000000000000000000e-01) (0, 0, 0.00000000000000000000e+00) (4, 4, 5.00000000000000000000e-01) (4, 4, 5.00000000000000000000e-01) (4, 4, 5.00000000000000000000e-01) (0, 0, 0.00000000000000000000e+00) (4, 4, 5.00000000000000000000e-01) (0, 0, 0.00000000000000000000e+00) 
connections (connected_to_neuron, weight)=(0, 2.87346081490314331219e+00) (1, 1.45534789590032232809e+03) (2, 5.87936307544518399482e+00) (3, -8.48862541573484818969e+00) (4, 3.51940687758099146620e+00) (5, 1.45535292730720175314e+03) (6, 1.90756028919687459222e-01) (7, -4.34811493899066370261e+00) (8, -2.46872582096586024036e+00) (9, 7.52893008254775897292e-01) (10, 4.25530399802658543251e+00) (11, 8.52307670791998428506e-01) (12, 7.84180887255226455324e+00) (13, 6.56851986869239956590e-01) (14, -2.62745706032102477323e+00) (15, -4.17927711461517592539e+00) (16, -3.37771994421913346329e+00) (17, -2.13831408969186220759e+00) (0, 2.98407659163409189063e+00) (1, 1.45531309424580467748e+03) (2, 1.51362620293428360441e+01) (3, -5.41128375454806742617e-01) (4, 1.29898038218327727122e+00) (5, 1.45523234873877299833e+03) (6, 8.06769571094239168474e+00) (7, -1.59908877362252765941e+00) (8, -1.43358464228174775634e+00) (9, -3.33932443442907445075e+00) (10, -1.66610854438298994218e+00) (11, -1.15863768552700241443e+00) (12, -1.25770533091352354482e+00) (13, -1.05201620670655549006e+00) (14, -6.89652969781334501675e+00) (15, -8.61234255610629162447e+00) (16, -5.60932763683141111244e+00) (17, -7.98733475655293112538e+00) (18, 2.20668193149737934533e+00) (19, 1.45535394994409216451e+03) (20, -2.26193921348269411098e+00) (18, 2.13040869879893879357e+00) (19, 1.45522274381907118368e+03) (20, -2.12584378650601335536e+00) (18, 2.18278137791328052941e+00) (19, 1.45521292691917551565e+03) (20, -2.20169489911015459072e+00) (21, -3.36015800128184416451e+00) (22, -2.21311651830769484661e+00) (23, -2.22790184280319891741e+00) (24, 2.89951900485072178171e+00) (21, -2.12747127288930393263e+00) (22, -2.21996487403266407057e+00) (23, -2.19126736098878360792e+00) (24, 2.68773270591956148223e+00) (21, -2.24825711274497486158e+00) (22, -1.87001342464906983309e+00) (23, -2.22598953271262622877e+00) (24, 2.57452832355957994537e+00) (25, 2.66918518133595217279e+00) (26, 2.86599586940501760424e+00) (27, 2.86699421048287872438e+00) (28, -3.07211919058637228375e+00) 
